<?xml version="1.0"?>
<opencv_storage>
<cascade>
  <stageType>BOOST</stageType>
  <featureType>LBP</featureType>
  <height>24</height>
  <width>24</width>
  <stageParams>
    <boostType>GAB</boostType>
    <minHitRate>9.9500000476837158e-01</minHitRate>
    <maxFalseAlarm>5.0000000000000000e-01</maxFalseAlarm>
    <weightTrimRate>9.4999999999999996e-01</weightTrimRate>
    <maxDepth>1</maxDepth>
    <maxWeakCount>100</maxWeakCount></stageParams>
  <featureParams>
    <maxCatCount>256</maxCatCount>
    <featSize>1</featSize></featureParams>
  <stageNum>19</stageNum>
  <stages>
    <!-- stage 0 -->
    <_>
      <maxWeakCount>1</maxWeakCount>
      <stageThreshold>9.7359734773635864e-01</stageThreshold>
      <weakClassifiers>
        <_>
          <internalNodes>
            0 -1 23 1359331603 -553648122 -2147413355 1393561632
            1073774989 -2013232128 -1742722799 -1408761639</internalNodes>
          <leafValues>
            -9.8639458417892456e-01 9.7359734773635864e-01</leafValues></_></weakClassifiers></_>
    <!-- stage 1 -->
    <_>
      <maxWeakCount>2</maxWeakCount>
      <stageThreshold>4.8570070415735245e-02</stageThreshold>
      <weakClassifiers>
        <_>
          <internalNodes>
            0 -1 12 -1 -32769 8323007 -318636016 1376403710 -1325236216
            -1845444527 -592924145</internalNodes>
          <leafValues>
            -9.1082805395126343e-01 1.</leafValues></_>
        <_>
          <internalNodes>
            0 -1 11 289495363 352585988 33722432 -637533932 4227147
            -1064796152 -503314263 -41772003</internalNodes>
          <leafValues>
            -9.5142990350723267e-01 9.8068374395370483e-01</leafValues></_></weakClassifiers></_>
    <!-- stage 2 -->
    <_>
      <maxWeakCount>1</maxWeakCount>
      <stageThreshold>9.6721309423446655e-01</stageThreshold>
      <weakClassifiers>
        <_>
          <internalNodes>
            0 -1 21 -1022930861 419500290 24592 -1069543085 -938917879
            -469696503 277958660 -599281633</internalNodes>
          <leafValues>
            -1. 9.6721309423446655e-01</leafValues></_></weakClassifiers></_>
    <!-- stage 3 -->
    <_>
      <maxWeakCount>1</maxWeakCount>
      <stageThreshold>9.7368419170379639e-01</stageThreshold>
      <weakClassifiers>
        <_>
          <internalNodes>
            0 -1 29 -796409573 -787920368 -2147352560 -2147483648
            -2147450194 134217768 -2146959359 -542145911</internalNodes>
          <leafValues>
            -1. 9.7368419170379639e-01</leafValues></_></weakClassifiers></_>
    <!-- stage 4 -->
    <_>
      <maxWeakCount>2</maxWeakCount>
      <stageThreshold>1.9641004037111998e-03</stageThreshold>
      <weakClassifiers>
        <_>
          <internalNodes>
            0 -1 27 -748469745 319094789 -801112048 1207964673
            -1022705650 134774786 -1073708918 -620507129</internalNodes>
          <leafValues>
            -9.7260272502899170e-01 9.6052628755569458e-01</leafValues></_>
        <_>
          <internalNodes>
            0 -1 30 -1 -1 -9 -1 -9 -1 -34953 -1</internalNodes>
          <leafValues>
            -9.4573718309402466e-01 9.7456681728363037e-01</leafValues></_></weakClassifiers></_>
    <!-- stage 5 -->
    <_>
      <maxWeakCount>2</maxWeakCount>
      <stageThreshold>2.9604895040392876e-02</stageThreshold>
      <weakClassifiers>
        <_>
          <internalNodes>
            0 -1 9 -1 -1 -65601 -25493505 -16777218 -1 -65537 -589825</internalNodes>
          <leafValues>
            -9.2052978277206421e-01 9.6655517816543579e-01</leafValues></_>
        <_>
          <internalNodes>
            0 -1 19 -1862151791 -1789919231 9553 -2130706303 -2004842338
            -2113912832 -2147481404 -628490087</internalNodes>
          <leafValues>
            -9.3478536605834961e-01 9.5013469457626343e-01</leafValues></_></weakClassifiers></_>
    <!-- stage 6 -->
    <_>
      <maxWeakCount>2</maxWeakCount>
      <stageThreshold>4.1326917707920074e-03</stageThreshold>
      <weakClassifiers>
        <_>
          <internalNodes>
            0 -1 10 -2147368365 -587103935 1075855377 -1275064320
            -1845460855 -1988097918 -2004841943 -544700005</internalNodes>
          <leafValues>
            -9.3377482891082764e-01 9.7324413061141968e-01</leafValues></_>
        <_>
          <internalNodes>
            0 -1 16 -251408143 -264241022 -2122300651 269516800
            -536215405 -668958575 1216397402 -1732106084</internalNodes>
          <leafValues>
            -9.5388817787170410e-01 9.3790751695632935e-01</leafValues></_></weakClassifiers></_>
    <!-- stage 7 -->
    <_>
      <maxWeakCount>2</maxWeakCount>
      <stageThreshold>-2.6218926534056664e-02</stageThreshold>
      <weakClassifiers>
        <_>
          <internalNodes>
            0 -1 0 17547867 -1996402432 -2147483640 -2063106024
            -2146860982 -1879048176 134513625 -645279501</internalNodes>
          <leafValues>
            -9.7142857313156128e-01 9.2258065938949585e-01</leafValues></_>
        <_>
          <internalNodes>
            0 -1 26 -799027053 -2143256576 -1727987427 -1073676160
            -2147450231 -1476362032 -2126478456 -359694176</internalNodes>
          <leafValues>
            -9.3197262287139893e-01 9.4520962238311768e-01</leafValues></_></weakClassifiers></_>
    <!-- stage 8 -->
    <_>
      <maxWeakCount>2</maxWeakCount>
      <stageThreshold>5.8722499758005142e-02</stageThreshold>
      <weakClassifiers>
        <_>
          <internalNodes>
            0 -1 3 -4113 -269488145 29364251 1560363027 -2147364160
            -2113650560 -1876916086 -565996904</internalNodes>
          <leafValues>
            -8.5987263917922974e-01 9.7269624471664429e-01</leafValues></_>
        <_>
          <internalNodes>
            0 -1 1 37863903 -1022328831 -1056881472 -721334271 50496136
            -1879044096 34113691 -543440734</internalNodes>
          <leafValues>
            -9.1397374868392944e-01 9.2602497339248657e-01</leafValues></_></weakClassifiers></_>
    <!-- stage 9 -->
    <_>
      <maxWeakCount>2</maxWeakCount>
      <stageThreshold>5.1636096090078354e-02</stageThreshold>
      <weakClassifiers>
        <_>
          <internalNodes>
            0 -1 2 804253695 -269549585 -327681 -2 1073807359 -1
            -402650417 -262112</internalNodes>
          <leafValues>
            -8.8079470396041870e-01 9.4648832082748413e-01</leafValues></_>
        <_>
          <internalNodes>
            0 -1 28 -2125535913 -654310896 1073758363 285278211 8814602
            -1323302648 25165963 -359946053</internalNodes>
          <leafValues>
            -8.9216089248657227e-01 9.3243080377578735e-01</leafValues></_></weakClassifiers></_>
    <!-- stage 10 -->
    <_>
      <maxWeakCount>2</maxWeakCount>
      <stageThreshold>-4.2425356805324554e-03</stageThreshold>
      <weakClassifiers>
        <_>
          <internalNodes>
            0 -1 20 814887251 -1072627711 -2147483215 -1659039719
            -2147483506 -2013265920 -2143288669 -1702131558</internalNodes>
          <leafValues>
            -9.4285714626312256e-01 9.0967744588851929e-01</leafValues></_>
        <_>
          <internalNodes>
            0 -1 15 -1111819270 2147483647 -1 2147483647 -1073741825 -1
            -1 -1</internalNodes>
          <leafValues>
            -8.5729461908340454e-01 9.3861460685729980e-01</leafValues></_></weakClassifiers></_>
    <!-- stage 11 -->
    <_>
      <maxWeakCount>2</maxWeakCount>
      <stageThreshold>-3.1797837466001511e-02</stageThreshold>
      <weakClassifiers>
        <_>
          <internalNodes>
            0 -1 6 -83951873 -319094786 -1 -50561024 -1 -1 -1 -7585</internalNodes>
          <leafValues>
            -8.3225804567337036e-01 9.4576269388198853e-01</leafValues></_>
        <_>
          <internalNodes>
            0 -1 32 -2144628544 -519880704 51201 131216 -2145386496
            268468226 81923 -125579133</internalNodes>
          <leafValues>
            -9.7756052017211914e-01 8.1976908445358276e-01</leafValues></_></weakClassifiers></_>
    <!-- stage 12 -->
    <_>
      <maxWeakCount>2</maxWeakCount>
      <stageThreshold>3.4102041274309158e-02</stageThreshold>
      <weakClassifiers>
        <_>
          <internalNodes>
            0 -1 8 -955043817 -754909184 20481 -738196223 -2147317631
            138444802 -2147467253 -376843239</internalNodes>
          <leafValues>
            -8.9189189672470093e-01 9.3377482891082764e-01</leafValues></_>
        <_>
          <internalNodes>
            0 -1 22 -766785786 -805236736 146804737 -1593835382
            -2147434326 -2096922624 4227721 -73285629</internalNodes>
          <leafValues>
            -8.5060626268386841e-01 9.2599391937255859e-01</leafValues></_></weakClassifiers></_>
    <!-- stage 13 -->
    <_>
      <maxWeakCount>2</maxWeakCount>
      <stageThreshold>4.7385614365339279e-02</stageThreshold>
      <weakClassifiers>
        <_>
          <internalNodes>
            0 -1 14 -129 -64765 -1 -1 -65537 -1 2147417983 -207984385</internalNodes>
          <leafValues>
            -8.4105962514877319e-01 9.2642140388488770e-01</leafValues></_>
        <_>
          <internalNodes>
            0 -1 13 -2063159021 -1858043902 -2147483632 -519860206
            -2012249974 -937295864 -2092891968 -1098136561</internalNodes>
          <leafValues>
            -8.7903577089309692e-01 8.9254462718963623e-01</leafValues></_></weakClassifiers></_>
    <!-- stage 14 -->
    <_>
      <maxWeakCount>2</maxWeakCount>
      <stageThreshold>1.3126809149980545e-02</stageThreshold>
      <weakClassifiers>
        <_>
          <internalNodes>
            0 -1 31 -1064953701 -1023369085 147465 -1593802623
            -2143240021 -1073676288 -2146955252 -913997174</internalNodes>
          <leafValues>
            -8.6394560337066650e-01 9.1419142484664917e-01</leafValues></_>
        <_>
          <internalNodes>
            0 -1 4 1426182495 -2117795312 268435792 1560346641 524298
            -1207893888 -2147041136 -485762421</internalNodes>
          <leafValues>
            -8.8831341266632080e-01 8.7707239389419556e-01</leafValues></_></weakClassifiers></_>
    <!-- stage 15 -->
    <_>
      <maxWeakCount>2</maxWeakCount>
      <stageThreshold>-6.8542622029781342e-02</stageThreshold>
      <weakClassifiers>
        <_>
          <internalNodes>
            0 -1 25 -788396038 -1996423166 67125260 35753992 -2130516923
            -536870912 33636493 -375684199</internalNodes>
          <leafValues>
            -9.1044777631759644e-01 8.6075949668884277e-01</leafValues></_>
        <_>
          <internalNodes>
            0 -1 17 -805060352 -787939072 20561 1358954496 -2147448696
            -939524095 -2147475302 -1193967607</internalNodes>
          <leafValues>
            -9.2930209636688232e-01 8.4745812416076660e-01</leafValues></_></weakClassifiers></_>
    <!-- stage 16 -->
    <_>
      <maxWeakCount>2</maxWeakCount>
      <stageThreshold>2.2162597160786390e-03</stageThreshold>
      <weakClassifiers>
        <_>
          <internalNodes>
            0 -1 7 -16777217 -1 -1627455745 -151323134 -1 -1 -1
            -141326183</internalNodes>
          <leafValues>
            -8.5430461168289185e-01 9.3311035633087158e-01</leafValues></_>
        <_>
          <internalNodes>
            0 -1 34 -1051918153 -251657470 -2147450861 -1861709559
            -2146860928 -1845297152 1073809424 -611592541</internalNodes>
          <leafValues>
            -9.3089413642883301e-01 8.8849914073944092e-01</leafValues></_></weakClassifiers></_>
    <!-- stage 17 -->
    <_>
      <maxWeakCount>2</maxWeakCount>
      <stageThreshold>4.6680521219968796e-02</stageThreshold>
      <weakClassifiers>
        <_>
          <internalNodes>
            0 -1 5 -1039743285 -805175294 16 -352321535 40976
            -1056440296 -1073151996 -1014775789</internalNodes>
          <leafValues>
            -7.3248410224914551e-01 9.0443688631057739e-01</leafValues></_>
        <_>
          <internalNodes>
            0 -1 18 -2004844520 -665841376 134318097 487653377
            -1056849243 -1610612608 -2013265781 -936728503</internalNodes>
          <leafValues>
            -8.5775631666183472e-01 8.7367832660675049e-01</leafValues></_></weakClassifiers></_>
    <!-- stage 18 -->
    <_>
      <maxWeakCount>2</maxWeakCount>
      <stageThreshold>7.1873880922794342e-02</stageThreshold>
      <weakClassifiers>
        <_>
          <internalNodes>
            0 -1 24 -262146 -868 -1 -131076 -2 -3 -268730370 -319293956</internalNodes>
          <leafValues>
            -8.0000001192092896e-01 8.9999997615814209e-01</leafValues></_>
        <_>
          <internalNodes>
            0 -1 33 1090773107 -1073741536 8 -2147467264 -1610489854
            36864 -1056931622 -778850294</internalNodes>
          <leafValues>
            -8.2812613248825073e-01 9.0858465433120728e-01</leafValues></_></weakClassifiers></_></stages>
  <features>
    <_>
      <rect>
        0 0 2 3</rect></_>
    <_>
      <rect>
        0 0 3 2</rect></_>
    <_>
      <rect>
        0 0 5 1</rect></_>
    <_>
      <rect>
        0 2 3 1</rect></_>
    <_>
      <rect>
        0 3 2 1</rect></_>
    <_>
      <rect>
        0 4 1 4</rect></_>
    <_>
      <rect>
        0 7 1 4</rect></_>
    <_>
      <rect>
        0 16 2 2</rect></_>
    <_>
      <rect>
        0 18 3 2</rect></_>
    <_>
      <rect>
        1 18 2 2</rect></_>
    <_>
      <rect>
        1 20 3 1</rect></_>
    <_>
      <rect>
        1 21 4 1</rect></_>
    <_>
      <rect>
        2 17 1 2</rect></_>
    <_>
      <rect>
        3 0 1 2</rect></_>
    <_>
      <rect>
        3 18 1 2</rect></_>
    <_>
      <rect>
        4 0 1 2</rect></_>
    <_>
      <rect>
        4 21 2 1</rect></_>
    <_>
      <rect>
        6 0 5 1</rect></_>
    <_>
      <rect>
        7 0 2 1</rect></_>
    <_>
      <rect>
        12 21 3 1</rect></_>
    <_>
      <rect>
        14 20 3 1</rect></_>
    <_>
      <rect>
        15 0 3 2</rect></_>
    <_>
      <rect>
        15 0 3 3</rect></_>
    <_>
      <rect>
        15 18 3 2</rect></_>
    <_>
      <rect>
        15 21 1 1</rect></_>
    <_>
      <rect>
        16 18 2 2</rect></_>
    <_>
      <rect>
        17 20 1 1</rect></_>
    <_>
      <rect>
        18 0 2 3</rect></_>
    <_>
      <rect>
        18 2 2 2</rect></_>
    <_>
      <rect>
        18 16 2 2</rect></_>
    <_>
      <rect>
        18 18 2 1</rect></_>
    <_>
      <rect>
        19 0 1 3</rect></_>
    <_>
      <rect>
        21 3 1 6</rect></_>
    <_>
      <rect>
        21 6 1 2</rect></_>
    <_>
      <rect>
        21 13 1 2</rect></_></features></cascade>
</opencv_storage>
